#define MODEL_SIZE 60
const double SVM_W[MODEL_SIZE] = {4.68648566009e-05, 2.72629879773e-05, -5.77370605625e-07, 4.05947107742e-08, 9.68796742822e-05, -8.08746501489e-05, 7.16929601592e-06, 4.83727131904e-05, -6.35818925414e-09, -7.33025089726e-09, 4.68648566009e-05, -3.28788466352e-06, -4.48713293313e-06, 2.72557691042e-05, 7.57705089114e-05, 6.36169428626e-05, -7.05258877476e-05, -6.11444576519e-05, -0.000160727767498, 0.000100776703107, 9.40529708121e-06, -0.000104280065555, -6.24793717706e-08, 5.46282447201e-08, 2.72629879773e-05, -3.32505046958e-05, 5.57990498551e-05, 8.06882066783e-05, -6.37025545217e-05, 4.37144044592e-05, 1.55476133611e-05, -0.000104339168436, 0.000327590021186, -0.000102281965698, 1.70455933055e-07, 0.000106558828583, 5.27076216486e-07, 5.43846486647e-07, -3.19326830864e-05, 2.23451474775e-05, -2.05046809733e-05, -9.107546704e-05, 3.95449991078e-05, -3.30036927753e-05, 6.9161101526e-05, -4.69486240748e-05, 0.000122661835759, -0.000102145415896, -6.41588270014e-06, 8.38449237141e-08, 4.57546419896e-07, 2.34993756826e-07, -4.82393855878e-05, 6.37687403426e-06, -1.20695553919e-05, 8.41697526808e-06, -5.64257793895e-05, 4.42259547471e-05, 5.45313330463e-06, -7.95377732707e-05};
const double THRESHOLD = -6.35818925e-09;

int my_predict(double * feature, int * f_size);
